{
    "global_cmvn": {
        "cmvn_mean": [
            12.847379684448242,
            14.318880081176758,
            14.778318405151367,
            15.167859077453613,
            15.063478469848633,
            14.750338554382324,
            14.619397163391113,
            14.6229829788208,
            14.919445991516113,
            15.377779960632324,
            15.541810989379883,
            15.652280807495117,
            15.794598579406738,
            15.822461128234863,
            15.83874797821045,
            15.804181098937988,
            15.569852828979492,
            15.30858325958252,
            15.20684814453125,
            14.680949211120605
        ],
        "cmvn_istd": [
            0.1593671590089798,
            0.15082189440727234,
            0.14830325543880463,
            0.145189106464386,
            0.14859746396541595,
            0.15627716481685638,
            0.1624455749988556,
            0.16539810597896576,
            0.1650116741657257,
            0.1628142148256302,
            0.16313029825687408,
            0.16344448924064636,
            0.16329167783260345,
            0.16527244448661804,
            0.16688992083072662,
            0.16832931339740753,
            0.17163610458374023,
            0.1748402714729309,
            0.17624948918819427,
            0.17868663370609283
        ]
    },
    "linear_subsampling": {
        "ls1_linear_weight": [
            [
                -0.028343355283141136,
                -0.02149270847439766,
                -0.11323682963848114,
                -0.08302278816699982,
                -0.04562879353761673,
                -0.015308010391891003,
                0.015165040269494057,
                -0.017662765458226204,
                0.05092308670282364,
                -0.05142241716384888,
                -0.17257492244243622,
                -0.028210561722517014,
                -0.26529884338378906,
                0.022207429632544518,
                0.09798531234264374,
                0.25260552763938904,
                0.2295113503932953,
                0.058451421558856964,
                0.33883100748062134,
                0.3375435173511505
            ],
            [
                0.29438480734825134,
                -0.08935412019491196,
                -0.009733673185110092,
                -0.050372231751680374,
                0.011150170117616653,
                0.08755847066640854,
                0.151040181517601,
                0.1598489135503769,
                0.07552964240312576,
                -0.02730598673224449,
                -0.23490674793720245,
                -0.23094332218170166,
                -0.056971676647663116,
                -0.055094532668590546,
                -0.06880317628383636,
                0.29003459215164185,
                0.10684575140476227,
                0.06649915874004364,
                0.09648860991001129,
                -0.04266994073987007
            ],
            [
                -0.17546918988227844,
                -0.08788558840751648,
                -0.037526197731494904,
                -0.05032412335276604,
                -0.24478232860565186,
                -0.11830248683691025,
                -0.09136293083429337,
                -0.08686277270317078,
                -0.042384590953588486,
                -0.07773196697235107,
                0.18235859274864197,
                -0.1054595485329628,
                -0.08336971700191498,
                -0.005760324187576771,
                -0.03094356879591942,
                0.08082971721887589,
                -0.032791756093502045,
                0.21680887043476105,
                0.375083863735199,
                0.3913522958755493
            ],
            [
                -0.17030823230743408,
                -0.03706613928079605,
                -0.05885782837867737,
                0.03692574054002762,
                0.29670876264572144,
                0.18710969388484955,
                -0.06735852360725403,
                -0.24843832850456238,
                -0.10594308376312256,
                0.06287965178489685,
                0.06362547725439072,
                0.06649667024612427,
                -0.1049288734793663,
                0.015164968557655811,
                0.05858194828033447,
                0.11701192706823349,
                -0.2868654727935791,
                -0.11084187030792236,
                -0.08612190186977386,
                -0.22932788729667664
            ],
            [
                -0.05668063089251518,
                -0.08455060422420502,
                -0.031999699771404266,
                -0.04554390162229538,
                0.011672168970108032,
                -0.18911194801330566,
                -0.08372530341148376,
                -0.15248505771160126,
                -0.06181253865361214,
                -0.17007455229759216,
                -0.1753406822681427,
                -0.04602322354912758,
                0.18275892734527588,
                0.4232252538204193,
                0.39663246273994446,
                0.1873057782649994,
                0.040020935237407684,
                0.21369454264640808,
                0.19213439524173737,
                0.17882952094078064
            ],
            [
                -0.03364964947104454,
                -0.047348640859127045,
                -0.02832409180700779,
                -0.032579224556684494,
                -0.013317900709807873,
                -0.01494589727371931,
                -0.034413404762744904,
                -0.03794779255986214,
                -0.04723799228668213,
                -0.03975450247526169,
                -0.01955420896410942,
                -0.01967827044427395,
                -0.020346831530332565,
                0.004259005188941956,
                -0.013842145912349224,
                -0.015420829877257347,
                -0.02124735713005066,
                0.0014085540315136313,
                0.005951777100563049,
                -0.06990878283977509
            ],
            [
                0.1878667175769806,
                0.08241826295852661,
                0.5564998984336853,
                0.5166314244270325,
                0.30063596367836,
                0.14059045910835266,
                -0.03757995367050171,
                0.052735336124897,
                0.06650416553020477,
                0.11961330473423004,
                -0.10716237127780914,
                -0.08098170906305313,
                -0.057565223425626755,
                0.032258041203022,
                -0.12958717346191406,
                0.01281148660928011,
                -0.13105374574661255,
                -0.06433096528053284,
                0.1450835019350052,
                -0.089359350502491
            ],
            [
                -0.12230690568685532,
                0.0899890586733818,
                -0.10696570575237274,
                0.12783175706863403,
                -0.13823509216308594,
                -0.1692475527524948,
                0.002010038821026683,
                0.03130142018198967,
                -0.03931164741516113,
                -0.06282584369182587,
                -0.04929060488939285,
                -0.00814697053283453,
                0.22663769125938416,
                -0.0552351251244545,
                -0.1962989866733551,
                0.045318543910980225,
                -0.1450224369764328,
                -0.2317783385515213,
                -0.14492228627204895,
                -0.0990011990070343
            ],
            [
                -0.14130350947380066,
                0.05145431309938431,
                0.06259660422801971,
                0.023505408316850662,
                0.06222144514322281,
                0.03854634612798691,
                -0.031957656145095825,
                -0.08901789784431458,
                0.037272900342941284,
                -0.09606591612100601,
                0.021422620862722397,
                -0.14272534847259521,
                -0.13059067726135254,
                0.05602582171559334,
                0.22971971333026886,
                0.3990512192249298,
                0.20159807801246643,
                0.01621623896062374,
                -0.08570769429206848,
                -0.22556647658348083
            ],
            [
                -0.11240123212337494,
                -0.11154347658157349,
                -0.21049395203590393,
                -0.23082402348518372,
                0.19729791581630707,
                0.24904055893421173,
                0.05580195039510727,
                0.20549090206623077,
                0.14362803101539612,
                0.1583215892314911,
                -0.1876641809940338,
                -0.10356360673904419,
                -0.11950413882732391,
                0.033052049577236176,
                0.08008549362421036,
                0.07422524690628052,
                -0.14723315834999084,
                0.11458148062229156,
                -0.07981069386005402,
                0.1413508504629135
            ],
            [
                -0.0043427469208836555,
                0.07808463275432587,
                -0.047667961567640305,
                0.026178890839219093,
                0.14241068065166473,
                0.1468547284603119,
                -0.11744356155395508,
                -0.10174234956502914,
                0.0601443350315094,
                -0.12438441812992096,
                -0.05845539644360542,
                0.1332077980041504,
                -0.15197941660881042,
                0.04108806699514389,
                -0.14620378613471985,
                -0.09324944764375687,
                0.05214279890060425,
                -0.19630467891693115,
                -0.11669377237558365,
                -0.034682516008615494
            ],
            [
                -0.04140417277812958,
                0.06196986883878708,
                -0.21714456379413605,
                -0.10029228776693344,
                -0.23188486695289612,
                0.16344082355499268,
                0.22960658371448517,
                0.2755451798439026,
                0.20324461162090302,
                0.005938501562923193,
                -0.28004294633865356,
                -0.18054044246673584,
                -0.13311231136322021,
                -0.08229106664657593,
                -0.14104142785072327,
                0.16559985280036926,
                0.05409185215830803,
                -0.028736621141433716,
                -0.032388173043727875,
                0.11487748473882675
            ],
            [
                -0.10977140814065933,
                -0.16435840725898743,
                0.14724285900592804,
                -0.057339269667863846,
                0.0741153210401535,
                0.15480956435203552,
                -0.08566515147686005,
                -0.012728655710816383,
                -0.2175789326429367,
                0.004943740088492632,
                -0.17454339563846588,
                0.005292660556733608,
                0.24499337375164032,
                0.1878509670495987,
                -0.021852660924196243,
                -0.031375523656606674,
                -0.04443930834531784,
                -0.09343720227479935,
                0.0032997368834912777,
                -0.01851654052734375
            ],
            [
                0.09417708218097687,
                0.04474477842450142,
                -0.05622505396604538,
                0.07978664338588715,
                -0.09637202322483063,
                -0.017003707587718964,
                -0.057401031255722046,
                -0.03379290550947189,
                -0.012468868866562843,
                0.12593674659729004,
                0.057346440851688385,
                0.14295701682567596,
                0.19811484217643738,
                0.17581449449062347,
                0.15276679396629333,
                0.008300988003611565,
                -0.009603768587112427,
                0.0013617032673209906,
                0.010183422826230526,
                0.0437137745320797
            ],
            [
                0.09497496485710144,
                -0.008745690807700157,
                0.18708303570747375,
                0.2849503755569458,
                -0.30809810757637024,
                0.0016806407365947962,
                0.08941841125488281,
                -0.19283504784107208,
                0.03204294294118881,
                -0.1662023514509201,
                -0.2569478452205658,
                0.01787663623690605,
                -0.24273249506950378,
                0.12188408523797989,
                0.14462140202522278,
                0.16425679624080658,
                -0.07930561155080795,
                -0.11422014236450195,
                0.08225516229867935,
                0.20056238770484924
            ],
            [
                0.044575661420822144,
                0.025798916816711426,
                -0.07374105602502823,
                -0.03862445801496506,
                -0.07467526942491531,
                -0.01534075103700161,
                -0.050771910697221756,
                -0.14471837878227234,
                0.10239871591329575,
                0.012542946264147758,
                0.026515692472457886,
                -0.10800937563180923,
                0.06682059913873672,
                -0.02816232107579708,
                -0.06559541076421738,
                0.2588443458080292,
                0.22296103835105896,
                0.2397143840789795,
                0.2892816364765167,
                0.47060519456863403
            ],
            [
                -0.02927982434630394,
                -0.07440655678510666,
                -0.0396367646753788,
                0.19216662645339966,
                -0.0819033831357956,
                0.04240500181913376,
                0.14006368815898895,
                0.23392705619335175,
                0.2707297205924988,
                -0.12327444553375244,
                0.13788798451423645,
                -0.20333866775035858,
                -0.3278551399707794,
                -0.19393378496170044,
                0.019598154351115227,
                -0.025127878412604332,
                -0.004199531394988298,
                -0.14353343844413757,
                -0.03942451998591423,
                0.018866945058107376
            ],
            [
                0.11626499891281128,
                -0.21386785805225372,
                -0.1419912576675415,
                -0.022535748779773712,
                0.16745363175868988,
                0.21512863039970398,
                0.17049291729927063,
                -0.16220134496688843,
                -0.2365732491016388,
                -0.1241869330406189,
                -0.14206551015377045,
                -0.11145178228616714,
                -0.023350214585661888,
                -0.055595140904188156,
                -0.09046856313943863,
                -0.003749944968149066,
                0.2380967140197754,
                0.1569032520055771,
                0.13954320549964905,
                0.20151834189891815
            ],
            [
                0.014608596451580524,
                0.018574019894003868,
                0.1473972052335739,
                0.15318891406059265,
                -0.026013892143964767,
                0.03926105797290802,
                -0.018323300406336784,
                -0.17679741978645325,
                0.031585581600666046,
                0.06287644803524017,
                -0.061820436269044876,
                0.17539942264556885,
                0.2616734206676483,
                0.18924982845783234,
                -0.0022952519357204437,
                -0.10088686645030975,
                -0.1799965798854828,
                -0.13829147815704346,
                -0.19512267410755157,
                0.012324241921305656
            ],
            [
                -0.1679171621799469,
                -0.09530635923147202,
                0.15548713505268097,
                0.08987265825271606,
                0.20659172534942627,
                0.06258942186832428,
                0.04959375783801079,
                0.10262104123830795,
                0.1444321572780609,
                0.29779815673828125,
                0.151048481464386,
                -0.04251323267817497,
                -0.13985398411750793,
                -0.03085978701710701,
                -0.06251884996891022,
                0.045446742326021194,
                -0.019830625504255295,
                -0.03248829394578934,
                -0.008786039426922798,
                0.11220327764749527
            ]
        ],
        "ls1_linear_bias": [
            0.008435302414000034,
            0.12915311753749847,
            0.2515926659107208,
            0.10905911773443222,
            0.21544687449932098,
            -0.010225409641861916,
            -0.059353046119213104,
            -0.2209387570619583,
            0.09886183589696884,
            0.4557362198829651,
            -0.279668390750885,
            0.18619467318058014,
            0.24466688930988312,
            0.5630863904953003,
            -0.029751529917120934,
            -0.15749607980251312,
            -0.10110644996166229,
            0.053773678839206696,
            0.2551223635673523,
            0.3439983129501343
        ]
    },
    "networks": {
        "network0": {
            "dilated_cnn_weight": [
                [
                    [
                        -0.17389163374900818,
                        0.22735555469989777,
                        0.11480720341205597
                    ]
                ],
                [
                    [
                        -0.33676767349243164,
                        -0.23163291811943054,
                        0.48689180612564087
                    ]
                ],
                [
                    [
                        0.2605854868888855,
                        0.27034786343574524,
                        -0.34570690989494324
                    ]
                ],
                [
                    [
                        0.15029601752758026,
                        -0.011568023823201656,
                        -0.31907573342323303
                    ]
                ],
                [
                    [
                        -0.23193633556365967,
                        -0.09845005720853806,
                        0.315143883228302
                    ]
                ],
                [
                    [
                        0.23121413588523865,
                        0.14514388144016266,
                        0.19833500683307648
                    ]
                ],
                [
                    [
                        -0.13090351223945618,
                        0.09835689514875412,
                        0.0827297493815422
                    ]
                ],
                [
                    [
                        -0.04515664651989937,
                        0.5694223046302795,
                        -0.5251913666725159
                    ]
                ],
                [
                    [
                        0.1938963234424591,
                        -0.018177039921283722,
                        -0.23558738827705383
                    ]
                ],
                [
                    [
                        -0.4453708231449127,
                        -0.060660891234874725,
                        0.24750354886054993
                    ]
                ],
                [
                    [
                        -0.6060091853141785,
                        0.3388445973396301,
                        0.381155788898468
                    ]
                ],
                [
                    [
                        -0.43668022751808167,
                        -0.24288210272789001,
                        -0.10359618812799454
                    ]
                ],
                [
                    [
                        -0.426682710647583,
                        0.14265097677707672,
                        -0.05949362367391586
                    ]
                ],
                [
                    [
                        -0.32994943857192993,
                        -0.08289788663387299,
                        0.4391017556190491
                    ]
                ],
                [
                    [
                        -0.06817355751991272,
                        -0.3235185444355011,
                        -0.32610246539115906
                    ]
                ],
                [
                    [
                        0.165695920586586,
                        0.13705089688301086,
                        -0.22845835983753204
                    ]
                ],
                [
                    [
                        -0.3651879131793976,
                        -0.04216834902763367,
                        0.20492391288280487
                    ]
                ],
                [
                    [
                        -0.15779131650924683,
                        -0.1014396920800209,
                        0.05466507002711296
                    ]
                ],
                [
                    [
                        0.4354379177093506,
                        -0.43290454149246216,
                        -0.24774563312530518
                    ]
                ],
                [
                    [
                        0.22513969242572784,
                        0.04630216211080551,
                        -0.30706971883773804
                    ]
                ]
            ],
            "dilated_cnn_bias": [
                1.69446224163039e-07,
                4.850151071877917e-06,
                1.0171511632961483e-07,
                -1.106267336581368e-05,
                -2.999402568093501e-05,
                5.133530294187949e-07,
                5.2545829021255486e-06,
                -2.180085402869736e-06,
                6.478009254351491e-06,
                -1.9348353816894814e-06,
                -2.0780821614607703e-06,
                -3.449390462151314e-08,
                8.075730875134468e-06,
                1.8751152310869657e-05,
                4.720808192359982e-06,
                -6.455844413721934e-06,
                -1.322844036621973e-05,
                -1.134034482674906e-05,
                7.071214440657059e-06,
                -2.9741775506408885e-05
            ],
            "bn_gamma": [
                0.9523845911026001,
                0.7515192627906799,
                0.9079484939575195,
                0.9523231387138367,
                0.9639666676521301,
                0.9621005058288574,
                0.9827522039413452,
                0.9320510029792786,
                0.9516140818595886,
                1.0434582233428955,
                0.9252549409866333,
                0.923425555229187,
                0.815323531627655,
                0.9929582476615906,
                0.7833030223846436,
                0.8863880038261414,
                0.7899261713027954,
                0.8269051313400269,
                0.8331047296524048,
                0.8585249185562134
            ],
            "bn_beta": [
                -0.11796031147241592,
                0.3614908754825592,
                0.07594186067581177,
                0.1437206119298935,
                0.3949515223503113,
                0.046066705137491226,
                0.15086600184440613,
                -0.055859506130218506,
                0.2621617317199707,
                0.28919050097465515,
                0.04365081340074539,
                0.25552818179130554,
                0.05337154120206833,
                0.1595204770565033,
                0.1620521992444992,
                -0.02943393588066101,
                0.06463837623596191,
                0.09529458731412888,
                0.3940102458000183,
                0.24967952072620392
            ],
            "bn_mean": [
                0.01964705064892769,
                -0.008550507947802544,
                0.0358675979077816,
                -0.1928950697183609,
                -0.00301766162738204,
                0.43028512597084045,
                0.012736397795379162,
                -0.0008972274954430759,
                -0.004804001189768314,
                -0.052491020411252975,
                0.07919023931026459,
                -0.37276822328567505,
                -0.1784282624721527,
                0.0074953786097466946,
                -0.025876512750983238,
                0.011190229095518589,
                -0.07799606770277023,
                -0.016242800280451775,
                -0.032534800469875336,
                -0.007767673581838608
            ],
            "bn_var": [
                0.0038419689517468214,
                0.0013595090713351965,
                0.008685173466801643,
                0.018328551203012466,
                0.002814153442159295,
                0.09333191812038422,
                0.0011496737133711576,
                0.0031224749982357025,
                0.00040859932778403163,
                0.007094039581716061,
                0.004923056811094284,
                0.03365219384431839,
                0.008046980015933514,
                0.0024493136443197727,
                0.005379769019782543,
                0.0021839728578925133,
                0.003403599141165614,
                0.0016155496705323458,
                0.005364951677620411,
                0.0013348638312891126
            ],
            "cnn_weight": [
                [
                    [
                        -0.24347257614135742
                    ],
                    [
                        -0.033824604004621506
                    ],
                    [
                        0.158901184797287
                    ],
                    [
                        -0.14509910345077515
                    ],
                    [
                        -0.11181050539016724
                    ],
                    [
                        0.10963455587625504
                    ],
                    [
                        0.05556949973106384
                    ],
                    [
                        -0.10776112228631973
                    ],
                    [
                        0.1022283062338829
                    ],
                    [
                        0.06777734309434891
                    ],
                    [
                        0.03480060026049614
                    ],
                    [
                        0.18098361790180206
                    ],
                    [
                        0.19451381266117096
                    ],
                    [
                        0.09257511794567108
                    ],
                    [
                        0.20680002868175507
                    ],
                    [
                        0.07996955513954163
                    ],
                    [
                        -0.18231719732284546
                    ],
                    [
                        -0.1356918066740036
                    ],
                    [
                        0.22318652272224426
                    ],
                    [
                        0.003988298587501049
                    ]
                ],
                [
                    [
                        0.10915297269821167
                    ],
                    [
                        -0.039692800492048264
                    ],
                    [
                        0.039276935160160065
                    ],
                    [
                        -0.03452462702989578
                    ],
                    [
                        0.1198718398809433
                    ],
                    [
                        0.06086476519703865
                    ],
                    [
                        0.2469276487827301
                    ],
                    [
                        0.2607349753379822
                    ],
                    [
                        -0.06992591917514801
                    ],
                    [
                        0.0801105797290802
                    ],
                    [
                        -0.2467888593673706
                    ],
                    [
                        -0.048925090581178665
                    ],
                    [
                        0.008218791335821152
                    ],
                    [
                        0.10874389111995697
                    ],
                    [
                        -0.01148068718612194
                    ],
                    [
                        -0.12357373535633087
                    ],
                    [
                        -0.2190205156803131
                    ],
                    [
                        -0.23909321427345276
                    ],
                    [
                        -0.22232086956501007
                    ],
                    [
                        -0.025075102224946022
                    ]
                ],
                [
                    [
                        0.04086019843816757
                    ],
                    [
                        -0.05628635734319687
                    ],
                    [
                        -0.006867527961730957
                    ],
                    [
                        0.0007740578730590641
                    ],
                    [
                        -0.07736724615097046
                    ],
                    [
                        0.1283268928527832
                    ],
                    [
                        0.19083131849765778
                    ],
                    [
                        0.07611003518104553
                    ],
                    [
                        -0.06705451011657715
                    ],
                    [
                        0.1873140037059784
                    ],
                    [
                        -0.11059421300888062
                    ],
                    [
                        0.241441011428833
                    ],
                    [
                        -0.27221518754959106
                    ],
                    [
                        -0.02429969795048237
                    ],
                    [
                        -0.20487260818481445
                    ],
                    [
                        0.18137753009796143
                    ],
                    [
                        0.08376792073249817
                    ],
                    [
                        -0.08634297549724579
                    ],
                    [
                        -0.045476533472537994
                    ],
                    [
                        0.1423322707414627
                    ]
                ],
                [
                    [
                        -0.014864717610180378
                    ],
                    [
                        -0.08652560412883759
                    ],
                    [
                        0.19097217917442322
                    ],
                    [
                        0.08238769322633743
                    ],
                    [
                        -0.18490812182426453
                    ],
                    [
                        0.010231736116111279
                    ],
                    [
                        0.20068903267383575
                    ],
                    [
                        -0.1551053673028946
                    ],
                    [
                        0.1766781061887741
                    ],
                    [
                        -0.11575361341238022
                    ],
                    [
                        -0.13513806462287903
                    ],
                    [
                        -0.07448513805866241
                    ],
                    [
                        0.05724651366472244
                    ],
                    [
                        0.07951571047306061
                    ],
                    [
                        0.10448217391967773
                    ],
                    [
                        0.019087281078100204
                    ],
                    [
                        -0.030718449503183365
                    ],
                    [
                        0.06197313219308853
                    ],
                    [
                        0.04929912090301514
                    ],
                    [
                        0.0843064934015274
                    ]
                ],
                [
                    [
                        -0.005642739590257406
                    ],
                    [
                        -0.1749356985092163
                    ],
                    [
                        -0.25631898641586304
                    ],
                    [
                        -0.3324429392814636
                    ],
                    [
                        -0.056121133267879486
                    ],
                    [
                        0.017631324008107185
                    ],
                    [
                        -0.2233046591281891
                    ],
                    [
                        -0.16356472671031952
                    ],
                    [
                        -0.01789960451424122
                    ],
                    [
                        -0.2108469009399414
                    ],
                    [
                        0.06325815618038177
                    ],
                    [
                        0.156005397439003
                    ],
                    [
                        0.11630942672491074
                    ],
                    [
                        -0.4386037290096283
                    ],
                    [
                        0.15783905982971191
                    ],
                    [
                        0.12041785567998886
                    ],
                    [
                        0.20707599818706512
                    ],
                    [
                        0.13230879604816437
                    ],
                    [
                        0.07644288241863251
                    ],
                    [
                        0.00702744722366333
                    ]
                ],
                [
                    [
                        0.17395922541618347
                    ],
                    [
                        0.03584592789411545
                    ],
                    [
                        0.06840737909078598
                    ],
                    [
                        -0.24295814335346222
                    ],
                    [
                        -0.06744322925806046
                    ],
                    [
                        0.1971360594034195
                    ],
                    [
                        0.11573229730129242
                    ],
                    [
                        -0.19943103194236755
                    ],
                    [
                        -0.057055868208408356
                    ],
                    [
                        -0.13034746050834656
                    ],
                    [
                        0.12044845521450043
                    ],
                    [
                        0.18884024024009705
                    ],
                    [
                        -0.2664976418018341
                    ],
                    [
                        0.16754820942878723
                    ],
                    [
                        0.05140247941017151
                    ],
                    [
                        0.14857937395572662
                    ],
                    [
                        0.09963134676218033
                    ],
                    [
                        0.20350690186023712
                    ],
                    [
                        -0.04017356410622597
                    ],
                    [
                        -0.03846049681305885
                    ]
                ],
                [
                    [
                        0.2488144189119339
                    ],
                    [
                        -0.14154116809368134
                    ],
                    [
                        0.12711136043071747
                    ],
                    [
                        0.1743229627609253
                    ],
                    [
                        0.09211155027151108
                    ],
                    [
                        0.08881401270627975
                    ],
                    [
                        -0.06090536713600159
                    ],
                    [
                        -0.062349386513233185
                    ],
                    [
                        0.1434251219034195
                    ],
                    [
                        0.24383528530597687
                    ],
                    [
                        -0.07258311659097672
                    ],
                    [
                        -0.0033539559226483107
                    ],
                    [
                        -0.16906338930130005
                    ],
                    [
                        -0.16428104043006897
                    ],
                    [
                        0.12901028990745544
                    ],
                    [
                        0.14081411063671112
                    ],
                    [
                        -0.1440238654613495
                    ],
                    [
                        -0.09853129088878632
                    ],
                    [
                        0.06369178742170334
                    ],
                    [
                        0.07736940681934357
                    ]
                ],
                [
                    [
                        0.1969471275806427
                    ],
                    [
                        0.002596780192106962
                    ],
                    [
                        -0.17305681109428406
                    ],
                    [
                        0.0904940515756607
                    ],
                    [
                        -0.15648683905601501
                    ],
                    [
                        0.2787087559700012
                    ],
                    [
                        -0.08854503184556961
                    ],
                    [
                        0.07499104738235474
                    ],
                    [
                        0.18805497884750366
                    ],
                    [
                        -0.19436302781105042
                    ],
                    [
                        -0.0032055159099400043
                    ],
                    [
                        0.08390412479639053
                    ],
                    [
                        -0.05663103610277176
                    ],
                    [
                        -0.10553977638483047
                    ],
                    [
                        -0.09289395809173584
                    ],
                    [
                        -0.055880356580019
                    ],
                    [
                        -0.13609515130519867
                    ],
                    [
                        -0.06890985369682312
                    ],
                    [
                        0.17985185980796814
                    ],
                    [
                        -0.1411665380001068
                    ]
                ],
                [
                    [
                        0.03647805005311966
                    ],
                    [
                        -0.11565536260604858
                    ],
                    [
                        0.00312766432762146
                    ],
                    [
                        -0.017825057730078697
                    ],
                    [
                        0.00025581050431355834
                    ],
                    [
                        -0.07665815204381943
                    ],
                    [
                        -0.16602247953414917
                    ],
                    [
                        -0.17910505831241608
                    ],
                    [
                        0.08116023242473602
                    ],
                    [
                        0.21805834770202637
                    ],
                    [
                        0.1973215639591217
                    ],
                    [
                        0.14382824301719666
                    ],
                    [
                        0.17168550193309784
                    ],
                    [
                        -0.12240143865346909
                    ],
                    [
                        0.10974852740764618
                    ],
                    [
                        0.07532887905836105
                    ],
                    [
                        0.22342059016227722
                    ],
                    [
                        -0.05903227999806404
                    ],
                    [
                        0.12874270975589752
                    ],
                    [
                        0.1845773458480835
                    ]
                ],
                [
                    [
                        -0.08203645795583725
                    ],
                    [
                        0.09059036523103714
                    ],
                    [
                        -0.1673916131258011
                    ],
                    [
                        -0.07564561814069748
                    ],
                    [
                        0.14334836602210999
                    ],
                    [
                        -0.2570820152759552
                    ],
                    [
                        0.24006231129169464
                    ],
                    [
                        0.17348849773406982
                    ],
                    [
                        -0.16530336439609528
                    ],
                    [
                        -0.016352718695998192
                    ],
                    [
                        -0.2998804450035095
                    ],
                    [
                        0.10588240623474121
                    ],
                    [
                        0.05515551567077637
                    ],
                    [
                        0.25618359446525574
                    ],
                    [
                        0.1413028985261917
                    ],
                    [
                        -0.16061553359031677
                    ],
                    [
                        -0.02566291019320488
                    ],
                    [
                        -0.18005037307739258
                    ],
                    [
                        0.15514251589775085
                    ],
                    [
                        0.02011324279010296
                    ]
                ],
                [
                    [
                        0.001016457099467516
                    ],
                    [
                        0.16294506192207336
                    ],
                    [
                        -0.11091683059930801
                    ],
                    [
                        0.014389443211257458
                    ],
                    [
                        -0.04113253206014633
                    ],
                    [
                        -0.030928218737244606
                    ],
                    [
                        0.20812304317951202
                    ],
                    [
                        0.19536292552947998
                    ],
                    [
                        -0.37658169865608215
                    ],
                    [
                        -0.20117780566215515
                    ],
                    [
                        -0.017395485192537308
                    ],
                    [
                        -0.022171780467033386
                    ],
                    [
                        -0.12411962449550629
                    ],
                    [
                        0.16937333345413208
                    ],
                    [
                        -0.11652950197458267
                    ],
                    [
                        -0.009208432398736477
                    ],
                    [
                        -0.09635110199451447
                    ],
                    [
                        -0.02399386093020439
                    ],
                    [
                        -0.13647037744522095
                    ],
                    [
                        -0.2856115698814392
                    ]
                ],
                [
                    [
                        -0.10838820785284042
                    ],
                    [
                        0.06906290352344513
                    ],
                    [
                        0.005974064581096172
                    ],
                    [
                        -0.1021481603384018
                    ],
                    [
                        -0.10029304027557373
                    ],
                    [
                        0.1252056062221527
                    ],
                    [
                        -0.05751515552401543
                    ],
                    [
                        -0.1320073902606964
                    ],
                    [
                        0.009802420623600483
                    ],
                    [
                        0.09124191850423813
                    ],
                    [
                        0.21353380382061005
                    ],
                    [
                        -0.08506207913160324
                    ],
                    [
                        -0.12187453359365463
                    ],
                    [
                        -0.004053658805787563
                    ],
                    [
                        0.011681541800498962
                    ],
                    [
                        -0.030386239290237427
                    ],
                    [
                        -0.1824246346950531
                    ],
                    [
                        0.07125938683748245
                    ],
                    [
                        0.10527549684047699
                    ],
                    [
                        0.009216994047164917
                    ]
                ],
                [
                    [
                        -0.10449488461017609
                    ],
                    [
                        -0.39154258370399475
                    ],
                    [
                        -0.12426812946796417
                    ],
                    [
                        -0.060294341295957565
                    ],
                    [
                        -0.16203562915325165
                    ],
                    [
                        -0.022364582866430283
                    ],
                    [
                        0.10821615159511566
                    ],
                    [
                        -0.12511864304542542
                    ],
                    [
                        -0.03197702765464783
                    ],
                    [
                        -0.11553116142749786
                    ],
                    [
                        0.1945447325706482
                    ],
                    [
                        -0.3052876591682434
                    ],
                    [
                        -0.08430451899766922
                    ],
                    [
                        -0.03719807416200638
                    ],
                    [
                        -0.05463496968150139
                    ],
                    [
                        0.048145607113838196
                    ],
                    [
                        -0.05596905201673508
                    ],
                    [
                        0.0026471083983778954
                    ],
                    [
                        -0.05498135834932327
                    ],
                    [
                        0.029791101813316345
                    ]
                ],
                [
                    [
                        -0.04319615289568901
                    ],
                    [
                        -0.14383037388324738
                    ],
                    [
                        0.18808071315288544
                    ],
                    [
                        -0.1577046811580658
                    ],
                    [
                        0.13846340775489807
                    ],
                    [
                        0.06451373547315598
                    ],
                    [
                        0.28434520959854126
                    ],
                    [
                        -0.09176310151815414
                    ],
                    [
                        -0.5197120904922485
                    ],
                    [
                        -0.2509356737136841
                    ],
                    [
                        -0.0728042870759964
                    ],
                    [
                        -0.052166491746902466
                    ],
                    [
                        0.11634735763072968
                    ],
                    [
                        0.1200549453496933
                    ],
                    [
                        0.2686532139778137
                    ],
                    [
                        -0.009792620316147804
                    ],
                    [
                        -0.1047871857881546
                    ],
                    [
                        -0.2013736218214035
                    ],
                    [
                        0.03771916776895523
                    ],
                    [
                        0.1367533951997757
                    ]
                ],
                [
                    [
                        0.15423592925071716
                    ],
                    [
                        -0.03133595734834671
                    ],
                    [
                        -0.02848481759428978
                    ],
                    [
                        0.028897469863295555
                    ],
                    [
                        -0.344218909740448
                    ],
                    [
                        0.11892364174127579
                    ],
                    [
                        -0.10922793298959732
                    ],
                    [
                        0.013088859617710114
                    ],
                    [
                        0.13613763451576233
                    ],
                    [
                        -0.13864903151988983
                    ],
                    [
                        -0.013479383662343025
                    ],
                    [
                        0.02360137738287449
                    ],
                    [
                        0.020325373858213425
                    ],
                    [
                        -0.16853630542755127
                    ],
                    [
                        -0.22259733080863953
                    ],
                    [
                        -0.13854579627513885
                    ],
                    [
                        0.04135046526789665
                    ],
                    [
                        -0.04334237053990364
                    ],
                    [
                        0.20870158076286316
                    ],
                    [
                        -0.12918828427791595
                    ]
                ],
                [
                    [
                        -0.12386082112789154
                    ],
                    [
                        -0.041724711656570435
                    ],
                    [
                        -0.003970371559262276
                    ],
                    [
                        -0.2835353910923004
                    ],
                    [
                        -0.07600069046020508
                    ],
                    [
                        0.10576832294464111
                    ],
                    [
                        0.0009709753794595599
                    ],
                    [
                        -0.031738586723804474
                    ],
                    [
                        0.0021972176618874073
                    ],
                    [
                        0.04368392378091812
                    ],
                    [
                        0.23982107639312744
                    ],
                    [
                        -0.09711579233407974
                    ],
                    [
                        0.08674728870391846
                    ],
                    [
                        -0.00018762586114462465
                    ],
                    [
                        0.1379999816417694
                    ],
                    [
                        0.1038789302110672
                    ],
                    [
                        -0.05749353766441345
                    ],
                    [
                        0.0936359316110611
                    ],
                    [
                        0.011558856815099716
                    ],
                    [
                        0.08840009570121765
                    ]
                ],
                [
                    [
                        -0.04437679797410965
                    ],
                    [
                        0.06810778379440308
                    ],
                    [
                        -0.06233643740415573
                    ],
                    [
                        0.06649517267942429
                    ],
                    [
                        -0.11892205476760864
                    ],
                    [
                        0.08445446193218231
                    ],
                    [
                        0.2976221442222595
                    ],
                    [
                        0.09188701212406158
                    ],
                    [
                        0.05535929650068283
                    ],
                    [
                        0.3896598517894745
                    ],
                    [
                        0.07798079401254654
                    ],
                    [
                        0.14446735382080078
                    ],
                    [
                        0.02987503632903099
                    ],
                    [
                        0.09936963021755219
                    ],
                    [
                        0.05378807336091995
                    ],
                    [
                        -0.03418160602450371
                    ],
                    [
                        0.08046824485063553
                    ],
                    [
                        -0.01132062915712595
                    ],
                    [
                        0.028261791914701462
                    ],
                    [
                        0.19090373814105988
                    ]
                ],
                [
                    [
                        -0.2629780173301697
                    ],
                    [
                        0.0012597845634445548
                    ],
                    [
                        -0.07098187506198883
                    ],
                    [
                        0.04574199393391609
                    ],
                    [
                        -0.21425223350524902
                    ],
                    [
                        -0.10910360515117645
                    ],
                    [
                        0.20479580760002136
                    ],
                    [
                        0.05011475831270218
                    ],
                    [
                        0.03869696706533432
                    ],
                    [
                        -0.06337229907512665
                    ],
                    [
                        -0.20254972577095032
                    ],
                    [
                        0.012511290609836578
                    ],
                    [
                        -0.1633370816707611
                    ],
                    [
                        -0.07864630967378616
                    ],
                    [
                        0.00431179441511631
                    ],
                    [
                        0.0666961520910263
                    ],
                    [
                        0.1731785237789154
                    ],
                    [
                        -0.2294824868440628
                    ],
                    [
                        -0.07156441360712051
                    ],
                    [
                        0.08328360319137573
                    ]
                ],
                [
                    [
                        -0.0015442967414855957
                    ],
                    [
                        0.1947575807571411
                    ],
                    [
                        -0.18853288888931274
                    ],
                    [
                        -0.09967716038227081
                    ],
                    [
                        0.02411123365163803
                    ],
                    [
                        0.20747072994709015
                    ],
                    [
                        0.07178685814142227
                    ],
                    [
                        0.09864141792058945
                    ],
                    [
                        -0.15619897842407227
                    ],
                    [
                        -0.2346448451280594
                    ],
                    [
                        -0.02565067447721958
                    ],
                    [
                        0.29718002676963806
                    ],
                    [
                        -0.148857980966568
                    ],
                    [
                        0.12304148823022842
                    ],
                    [
                        -0.12147420644760132
                    ],
                    [
                        -0.0013500300701707602
                    ],
                    [
                        -0.03737395629286766
                    ],
                    [
                        -0.20589931309223175
                    ],
                    [
                        -0.17558762431144714
                    ],
                    [
                        -0.41396135091781616
                    ]
                ],
                [
                    [
                        0.24266263842582703
                    ],
                    [
                        0.13496136665344238
                    ],
                    [
                        0.04704060032963753
                    ],
                    [
                        0.09492187201976776
                    ],
                    [
                        0.011868825182318687
                    ],
                    [
                        0.01993742398917675
                    ],
                    [
                        0.10485732555389404
                    ],
                    [
                        -0.09588136523962021
                    ],
                    [
                        -0.05232031270861626
                    ],
                    [
                        0.2071833610534668
                    ],
                    [
                        -0.04144255444407463
                    ],
                    [
                        0.19668498635292053
                    ],
                    [
                        0.05706231668591499
                    ],
                    [
                        0.049294646829366684
                    ],
                    [
                        0.09178398549556732
                    ],
                    [
                        0.1362687051296234
                    ],
                    [
                        -0.04623048007488251
                    ],
                    [
                        0.0051240501925349236
                    ],
                    [
                        -0.019927535206079483
                    ],
                    [
                        0.03417542576789856
                    ]
                ]
            ],
            "cnn_bias": [
                9.594750736141577e-06,
                -1.4278118669608375e-06,
                1.494599587203993e-06,
                1.3751775895798346e-07,
                1.8666722098714672e-05,
                1.7942393242265098e-06,
                1.622695322112122e-06,
                3.4833603876904817e-06,
                9.22141566661594e-07,
                8.848312660347801e-08,
                -1.5410963669637567e-06,
                -3.2161847229872365e-07,
                6.299515916907694e-06,
                2.742914603004465e-06,
                4.306865776015911e-06,
                -4.321015580899257e-07,
                -1.4441441180679249e-06,
                9.12371433514636e-07,
                4.166613052802859e-06,
                -6.128414611339394e-07
            ]
        },
        "network1": {
            "dilated_cnn_weight": [
                [
                    [
                        0.29824110865592957,
                        -0.04381430521607399,
                        0.134779155254364
                    ]
                ],
                [
                    [
                        -0.013083577156066895,
                        -0.08681191504001617,
                        0.565891683101654
                    ]
                ],
                [
                    [
                        0.49432435631752014,
                        0.054619938135147095,
                        -0.3200460970401764
                    ]
                ],
                [
                    [
                        -0.18860146403312683,
                        -0.1692572981119156,
                        -0.1706908643245697
                    ]
                ],
                [
                    [
                        0.6881698369979858,
                        0.1323024034500122,
                        -0.08989838510751724
                    ]
                ],
                [
                    [
                        -0.24291782081127167,
                        -0.1017625480890274,
                        0.3001600205898285
                    ]
                ],
                [
                    [
                        -0.19598016142845154,
                        -0.17664656043052673,
                        -0.15129706263542175
                    ]
                ],
                [
                    [
                        0.20964770019054413,
                        0.44833165407180786,
                        0.20475861430168152
                    ]
                ],
                [
                    [
                        0.37632623314857483,
                        -0.0872364342212677,
                        -0.18719515204429626
                    ]
                ],
                [
                    [
                        -0.2443782091140747,
                        -0.2642332911491394,
                        -0.1436125487089157
                    ]
                ],
                [
                    [
                        -0.14784911274909973,
                        -0.1934409737586975,
                        -0.2040116786956787
                    ]
                ],
                [
                    [
                        -0.032352376729249954,
                        0.0755588561296463,
                        -0.5638054013252258
                    ]
                ],
                [
                    [
                        -0.15347009897232056,
                        -0.08222091197967529,
                        -0.02501661144196987
                    ]
                ],
                [
                    [
                        0.03097493387758732,
                        0.17768339812755585,
                        0.5744968056678772
                    ]
                ],
                [
                    [
                        0.015353983268141747,
                        0.3754689395427704,
                        0.2527366280555725
                    ]
                ],
                [
                    [
                        0.04966963455080986,
                        0.25314781069755554,
                        0.0029652006924152374
                    ]
                ],
                [
                    [
                        -0.05508636683225632,
                        -0.17926447093486786,
                        -0.19997423887252808
                    ]
                ],
                [
                    [
                        -0.0016722835134714842,
                        -0.25605568289756775,
                        -0.22742295265197754
                    ]
                ],
                [
                    [
                        0.11043018102645874,
                        0.18069294095039368,
                        -0.012684429995715618
                    ]
                ],
                [
                    [
                        0.06268732994794846,
                        -0.21789439022541046,
                        -0.3107944428920746
                    ]
                ]
            ],
            "dilated_cnn_bias": [
                1.2066855106240837e-06,
                -4.74755461254972e-06,
                -4.342021838965593e-06,
                3.3235151022381615e-06,
                4.500716386246495e-07,
                3.679613200802123e-06,
                4.167512997810263e-06,
                9.025409895002667e-07,
                4.114184264381038e-07,
                2.402674113000103e-07,
                -1.4986758287705015e-05,
                -1.0561370800132863e-05,
                -4.38104422073593e-07,
                1.8897837890108349e-06,
                -8.83164375409251e-06,
                7.829867172404192e-06,
                6.8527051553246565e-06,
                1.6366193449357525e-05,
                -4.8612077080179006e-05,
                7.940042451082263e-06
            ],
            "bn_gamma": [
                0.7227686643600464,
                0.832619845867157,
                0.7052818536758423,
                0.9494520425796509,
                0.952187180519104,
                0.7142809629440308,
                0.8523504137992859,
                0.7394868731498718,
                0.7348579168319702,
                1.131562352180481,
                1.068904161453247,
                0.9931098222732544,
                0.8643477559089661,
                0.749315619468689,
                0.6925817728042603,
                1.0049413442611694,
                1.0306792259216309,
                1.2161874771118164,
                0.9202049970626831,
                0.84092777967453
            ],
            "bn_beta": [
                -0.15209954977035522,
                0.01183775532990694,
                -0.009090090170502663,
                0.0834139883518219,
                0.09595203399658203,
                -0.0459308885037899,
                0.26983970403671265,
                -0.13593599200248718,
                0.09792345017194748,
                0.27228212356567383,
                0.46327608823776245,
                0.17851902544498444,
                0.09225588291883469,
                -0.020954633131623268,
                -0.10316892713308334,
                0.07599685341119766,
                0.5838847756385803,
                0.4149354100227356,
                0.1918570101261139,
                0.21789297461509705
            ],
            "bn_mean": [
                0.023368656635284424,
                0.042729515582323074,
                0.008441494777798653,
                -0.07146606594324112,
                0.10713962465524673,
                -0.001055435510352254,
                -0.01814499869942665,
                0.0062630148604512215,
                0.007360684685409069,
                -0.0985502153635025,
                -0.04049444943666458,
                -0.044539935886859894,
                -0.023127760738134384,
                0.04739416390657425,
                0.003477552905678749,
                0.0090376827865839,
                -0.03218042477965355,
                -0.05946655943989754,
                0.0046584876254200935,
                -0.03402866795659065
            ],
            "bn_var": [
                0.0017546990420669317,
                0.02477244846522808,
                0.0028984197415411472,
                0.013873258605599403,
                0.007048840168863535,
                0.0008232779800891876,
                0.0050599221140146255,
                0.001912696287035942,
                0.0015643683727830648,
                0.03040219470858574,
                0.009041408076882362,
                0.001975444843992591,
                0.0003637098125182092,
                0.015175363048911095,
                0.0003086941142100841,
                0.00010615387873258442,
                0.0058959168381989,
                0.009347675368189812,
                0.00026994955260306597,
                0.00692405179142952
            ],
            "cnn_weight": [
                [
                    [
                        -0.1672828495502472
                    ],
                    [
                        -0.2952873706817627
                    ],
                    [
                        -0.11961205303668976
                    ],
                    [
                        0.060580022633075714
                    ],
                    [
                        -0.010938052088022232
                    ],
                    [
                        -0.06632630527019501
                    ],
                    [
                        0.07638002932071686
                    ],
                    [
                        0.033369358628988266
                    ],
                    [
                        -0.036687321960926056
                    ],
                    [
                        0.41463977098464966
                    ],
                    [
                        -0.06360909342765808
                    ],
                    [
                        -0.03159376606345177
                    ],
                    [
                        -0.017027053982019424
                    ],
                    [
                        -0.009504882618784904
                    ],
                    [
                        0.07523243129253387
                    ],
                    [
                        0.22439351677894592
                    ],
                    [
                        0.05884454399347305
                    ],
                    [
                        0.3381621241569519
                    ],
                    [
                        -0.03692519664764404
                    ],
                    [
                        -0.2581110894680023
                    ]
                ],
                [
                    [
                        0.1586291640996933
                    ],
                    [
                        0.0020189567003399134
                    ],
                    [
                        -0.11988569796085358
                    ],
                    [
                        0.08395148813724518
                    ],
                    [
                        0.011172479949891567
                    ],
                    [
                        0.18260493874549866
                    ],
                    [
                        -0.16367438435554504
                    ],
                    [
                        -0.02596970833837986
                    ],
                    [
                        -0.06347277015447617
                    ],
                    [
                        -0.014104756526648998
                    ],
                    [
                        0.11282911151647568
                    ],
                    [
                        -0.0864349827170372
                    ],
                    [
                        -0.0847931057214737
                    ],
                    [
                        -0.0021847980096936226
                    ],
                    [
                        -0.07880791276693344
                    ],
                    [
                        0.048009492456912994
                    ],
                    [
                        0.024565577507019043
                    ],
                    [
                        0.02186303399503231
                    ],
                    [
                        -0.16133001446723938
                    ],
                    [
                        -0.16722330451011658
                    ]
                ],
                [
                    [
                        0.034187011420726776
                    ],
                    [
                        0.03659109026193619
                    ],
                    [
                        -0.005435176659375429
                    ],
                    [
                        -0.15881145000457764
                    ],
                    [
                        -0.01793365739285946
                    ],
                    [
                        -0.008436028845608234
                    ],
                    [
                        -0.1456606686115265
                    ],
                    [
                        -0.07554414868354797
                    ],
                    [
                        0.0655762106180191
                    ],
                    [
                        -0.3156830072402954
                    ],
                    [
                        -0.2368827760219574
                    ],
                    [
                        -0.1703721433877945
                    ],
                    [
                        -0.06646756827831268
                    ],
                    [
                        0.01841459795832634
                    ],
                    [
                        0.0026663015596568584
                    ],
                    [
                        0.10416032373905182
                    ],
                    [
                        -0.30165430903434753
                    ],
                    [
                        0.08841034770011902
                    ],
                    [
                        0.01897527649998665
                    ],
                    [
                        -0.24738061428070068
                    ]
                ],
                [
                    [
                        0.09697896987199783
                    ],
                    [
                        -0.0389658585190773
                    ],
                    [
                        -0.11076696962118149
                    ],
                    [
                        -0.13152161240577698
                    ],
                    [
                        -0.15061935782432556
                    ],
                    [
                        -0.013149594888091087
                    ],
                    [
                        -0.03012985922396183
                    ],
                    [
                        -0.060313016176223755
                    ],
                    [
                        -0.1728372424840927
                    ],
                    [
                        -0.13347256183624268
                    ],
                    [
                        0.18957401812076569
                    ],
                    [
                        0.2387971132993698
                    ],
                    [
                        0.01819441467523575
                    ],
                    [
                        0.0566815547645092
                    ],
                    [
                        -0.08480783551931381
                    ],
                    [
                        -0.20252689719200134
                    ],
                    [
                        -0.08881025016307831
                    ],
                    [
                        -0.06530176103115082
                    ],
                    [
                        -0.04395999759435654
                    ],
                    [
                        -0.13167569041252136
                    ]
                ],
                [
                    [
                        0.04488440975546837
                    ],
                    [
                        -0.08501790463924408
                    ],
                    [
                        0.038508251309394836
                    ],
                    [
                        0.03649040684103966
                    ],
                    [
                        0.0720243826508522
                    ],
                    [
                        -0.026472795754671097
                    ],
                    [
                        0.042261384427547455
                    ],
                    [
                        -0.02864689752459526
                    ],
                    [
                        0.1288335770368576
                    ],
                    [
                        -0.31023287773132324
                    ],
                    [
                        0.1881512999534607
                    ],
                    [
                        0.2008199244737625
                    ],
                    [
                        -0.12371988594532013
                    ],
                    [
                        -0.19783535599708557
                    ],
                    [
                        -0.10672664642333984
                    ],
                    [
                        0.006938593927770853
                    ],
                    [
                        -0.1687256097793579
                    ],
                    [
                        -0.18974313139915466
                    ],
                    [
                        -0.1480218470096588
                    ],
                    [
                        0.24915623664855957
                    ]
                ],
                [
                    [
                        -0.004471197724342346
                    ],
                    [
                        -0.1357925832271576
                    ],
                    [
                        -0.11823519319295883
                    ],
                    [
                        -0.061529796570539474
                    ],
                    [
                        0.3270111680030823
                    ],
                    [
                        0.009553074836730957
                    ],
                    [
                        -0.11766090244054794
                    ],
                    [
                        0.08708366751670837
                    ],
                    [
                        -0.028797607868909836
                    ],
                    [
                        0.2560376524925232
                    ],
                    [
                        0.23877504467964172
                    ],
                    [
                        -0.047615714371204376
                    ],
                    [
                        -0.13414417207241058
                    ],
                    [
                        -0.11543109267950058
                    ],
                    [
                        0.09960643947124481
                    ],
                    [
                        -0.20786543190479279
                    ],
                    [
                        0.12912245094776154
                    ],
                    [
                        -0.04135352000594139
                    ],
                    [
                        -0.10799948871135712
                    ],
                    [
                        0.0900576040148735
                    ]
                ],
                [
                    [
                        0.03093903884291649
                    ],
                    [
                        -0.3663841485977173
                    ],
                    [
                        0.025402706116437912
                    ],
                    [
                        0.044848982244729996
                    ],
                    [
                        0.1090792864561081
                    ],
                    [
                        -0.16266748309135437
                    ],
                    [
                        0.0501667745411396
                    ],
                    [
                        -0.0009364738943986595
                    ],
                    [
                        0.04193031042814255
                    ],
                    [
                        0.022625532001256943
                    ],
                    [
                        0.20232315361499786
                    ],
                    [
                        0.21208837628364563
                    ],
                    [
                        0.11689170449972153
                    ],
                    [
                        -0.04929167404770851
                    ],
                    [
                        -0.0031495653092861176
                    ],
                    [
                        -0.15848538279533386
                    ],
                    [
                        0.40779152512550354
                    ],
                    [
                        -0.02596939727663994
                    ],
                    [
                        -0.07811062037944794
                    ],
                    [
                        0.10668335855007172
                    ]
                ],
                [
                    [
                        0.14362582564353943
                    ],
                    [
                        -0.09197894483804703
                    ],
                    [
                        -0.03818223252892494
                    ],
                    [
                        0.16120094060897827
                    ],
                    [
                        -0.22713613510131836
                    ],
                    [
                        0.16094765067100525
                    ],
                    [
                        -0.14246752858161926
                    ],
                    [
                        -0.0719560980796814
                    ],
                    [
                        -0.011023019440472126
                    ],
                    [
                        -0.2739028334617615
                    ],
                    [
                        -0.16860994696617126
                    ],
                    [
                        -0.16125589609146118
                    ],
                    [
                        -0.040022484958171844
                    ],
                    [
                        -0.00864456407725811
                    ],
                    [
                        0.01900608278810978
                    ],
                    [
                        0.10025899112224579
                    ],
                    [
                        0.17227019369602203
                    ],
                    [
                        0.21001717448234558
                    ],
                    [
                        0.13578838109970093
                    ],
                    [
                        -0.19152241945266724
                    ]
                ],
                [
                    [
                        -0.08124841749668121
                    ],
                    [
                        -0.16432243585586548
                    ],
                    [
                        -0.0009960192255675793
                    ],
                    [
                        0.010648645460605621
                    ],
                    [
                        -0.08576653897762299
                    ],
                    [
                        -0.086153544485569
                    ],
                    [
                        0.033245958387851715
                    ],
                    [
                        0.07257981598377228
                    ],
                    [
                        -0.15274551510810852
                    ],
                    [
                        0.22520442306995392
                    ],
                    [
                        0.2533354163169861
                    ],
                    [
                        0.25957566499710083
                    ],
                    [
                        0.10340049117803574
                    ],
                    [
                        -0.13350547850131989
                    ],
                    [
                        0.13940361142158508
                    ],
                    [
                        -0.05304566025733948
                    ],
                    [
                        0.15132075548171997
                    ],
                    [
                        -0.04402793198823929
                    ],
                    [
                        -0.13592879474163055
                    ],
                    [
                        0.14385242760181427
                    ]
                ],
                [
                    [
                        -0.06228956580162048
                    ],
                    [
                        0.013315608724951744
                    ],
                    [
                        0.007586111314594746
                    ],
                    [
                        -0.3739981949329376
                    ],
                    [
                        -0.05801961570978165
                    ],
                    [
                        -0.024177420884370804
                    ],
                    [
                        -0.05859227851033211
                    ],
                    [
                        -0.17301268875598907
                    ],
                    [
                        -0.3252864480018616
                    ],
                    [
                        -0.15643826127052307
                    ],
                    [
                        -0.07266833633184433
                    ],
                    [
                        -0.07740984857082367
                    ],
                    [
                        -0.15141752362251282
                    ],
                    [
                        0.10561363399028778
                    ],
                    [
                        -0.14028847217559814
                    ],
                    [
                        0.05482097342610359
                    ],
                    [
                        -0.07984672486782074
                    ],
                    [
                        0.03107314184308052
                    ],
                    [
                        0.06211750581860542
                    ],
                    [
                        0.005958504043519497
                    ]
                ],
                [
                    [
                        0.006301102228462696
                    ],
                    [
                        0.13413938879966736
                    ],
                    [
                        0.10133258998394012
                    ],
                    [
                        0.10296833515167236
                    ],
                    [
                        -0.16992545127868652
                    ],
                    [
                        0.0033886891324073076
                    ],
                    [
                        0.0008743579383008182
                    ],
                    [
                        -0.05347757413983345
                    ],
                    [
                        0.11781473457813263
                    ],
                    [
                        -0.24033276736736298
                    ],
                    [
                        -0.08803021907806396
                    ],
                    [
                        0.13778510689735413
                    ],
                    [
                        -0.03513728827238083
                    ],
                    [
                        0.05402055382728577
                    ],
                    [
                        -0.10438815504312515
                    ],
                    [
                        0.11055926978588104
                    ],
                    [
                        -0.2844220697879791
                    ],
                    [
                        0.054314471781253815
                    ],
                    [
                        0.12189290672540665
                    ],
                    [
                        -0.06339023262262344
                    ]
                ],
                [
                    [
                        0.07914630323648453
                    ],
                    [
                        -0.11185040324926376
                    ],
                    [
                        -0.03157006949186325
                    ],
                    [
                        0.20780959725379944
                    ],
                    [
                        0.12230686098337173
                    ],
                    [
                        -0.048064932227134705
                    ],
                    [
                        0.03875115141272545
                    ],
                    [
                        0.06703020632266998
                    ],
                    [
                        -0.04582808539271355
                    ],
                    [
                        0.006675275973975658
                    ],
                    [
                        0.07135831564664841
                    ],
                    [
                        -0.26572248339653015
                    ],
                    [
                        -0.1470378190279007
                    ],
                    [
                        -0.04487276449799538
                    ],
                    [
                        -0.11953140795230865
                    ],
                    [
                        0.09179496020078659
                    ],
                    [
                        0.14132453501224518
                    ],
                    [
                        0.04170947149395943
                    ],
                    [
                        -0.1861216127872467
                    ],
                    [
                        0.1178063377737999
                    ]
                ],
                [
                    [
                        0.1475898027420044
                    ],
                    [
                        0.06571148335933685
                    ],
                    [
                        0.10006461292505264
                    ],
                    [
                        -0.14683055877685547
                    ],
                    [
                        -0.21157021820545197
                    ],
                    [
                        -0.0016565583646297455
                    ],
                    [
                        0.10786602646112442
                    ],
                    [
                        0.06309349834918976
                    ],
                    [
                        0.05103486776351929
                    ],
                    [
                        -0.1565045267343521
                    ],
                    [
                        0.048860102891922
                    ],
                    [
                        0.28428804874420166
                    ],
                    [
                        -0.14855818450450897
                    ],
                    [
                        0.08302734047174454
                    ],
                    [
                        0.0276894923299551
                    ],
                    [
                        -0.07963919639587402
                    ],
                    [
                        0.0063045332208275795
                    ],
                    [
                        -0.17582643032073975
                    ],
                    [
                        -0.008680465631186962
                    ],
                    [
                        0.03229644149541855
                    ]
                ],
                [
                    [
                        0.11112427711486816
                    ],
                    [
                        0.04016508907079697
                    ],
                    [
                        -0.12167327105998993
                    ],
                    [
                        -0.07694535702466965
                    ],
                    [
                        -0.04253946989774704
                    ],
                    [
                        0.07295097410678864
                    ],
                    [
                        0.1599593460559845
                    ],
                    [
                        -0.014913184568285942
                    ],
                    [
                        0.17197172343730927
                    ],
                    [
                        0.07262057065963745
                    ],
                    [
                        -0.17396923899650574
                    ],
                    [
                        -0.16751858592033386
                    ],
                    [
