{
    "linear_subsampling": {
        "ls1_linear_weight": [
            [
                -2541442,
                24378,
                108982,
                381832,
                3986400,
                3282034,
                2535117,
                1521264,
                2515593,
                -295860,
                -1001612,
                -771316,
                -3404846,
                200918,
                2293057,
                3278431,
                2564333,
                -1802777,
                801226,
                1432569
            ],
            [
                1008556,
                -2880498,
                -1399781,
                -2103405,
                1210346,
                1419926,
                206126,
                -2047861,
                -2944374,
                -1209235,
                -1255481,
                622385,
                858982,
                3541340,
                -483248,
                5682458,
                4963413,
                2409376,
                1416795,
                2395568
            ],
            [
                -2795766,
                -593245,
                1502991,
                3043338,
                -3455360,
                -3205821,
                -167264,
                -2093527,
                -388335,
                369061,
                3355835,
                -2506704,
                -1106883,
                2752109,
                2216810,
                2658711,
                -2929867,
                2709617,
                5521631,
                2635944
            ],
            [
                -519538,
                -2182803,
                -1031008,
                -732297,
                2119905,
                1128286,
                -502261,
                -2922408,
                -1277121,
                1507415,
                -240411,
                -3045285,
                -1592208,
                -1829794,
                -1527148,
                1004399,
                -587215,
                -1157567,
                -846747,
                -1190312
            ],
            [
                -4590315,
                -4338505,
                -2248179,
                324388,
                2585492,
                -1058140,
                1719167,
                1611443,
                -195104,
                2748151,
                2768033,
                1836847,
                -315577,
                3253629,
                3236219,
                4450771,
                1793258,
                -160166,
                862869,
                1098538
            ],
            [
                -189108,
                -2827157,
                -2062308,
                -4462389,
                -2906985,
                -522614,
                -932075,
                156410,
                -398379,
                -1572396,
                75998,
                -2052440,
                -4474594,
                1329561,
                -272434,
                1778394,
                1210289,
                3607160,
                4173612,
                721366
            ],
            [
                546200,
                -155519,
                1159768,
                2362981,
                4727717,
                -671167,
                155966,
                5239475,
                3940803,
                2703769,
                -4494960,
                -1926234,
                -3595106,
                -1991214,
                -640841,
                753276,
                -1718987,
                1699759,
                2723062,
                -2684341
            ],
            [
                -4012199,
                -1738101,
                -4054040,
                490128,
                -1808479,
                -2113475,
                117552,
                -190354,
                -407078,
                1411740,
                309428,
                1092048,
                3991697,
                -3738,
                -757401,
                1156455,
                1226805,
                -1253875,
                -1872770,
                -2853712
            ],
            [
                -3233302,
                601745,
                235936,
                -1200222,
                -206670,
                641561,
                -959843,
                -3400399,
                894053,
                -2321559,
                751798,
                521831,
                640718,
                4820393,
                5928815,
                4355604,
                1505874,
                546836,
                270310,
                -1102594
            ],
            [
                1447472,
                -2939497,
                -3043761,
                -2571058,
                3043555,
                3528565,
                -998698,
                3216289,
                3651110,
                4542197,
                -2493881,
                -1450451,
                222671,
                1073476,
                1843690,
                808434,
                -3979755,
                -926906,
                -3708340,
                -141853
            ],
            [
                761304,
                2960154,
                1235031,
                2267478,
                3003980,
                1316743,
                -3776852,
                -2858156,
                133525,
                -4037246,
                -2868593,
                2800054,
                -1730604,
                938085,
                -2343472,
                -1821340,
                2130731,
                -3376236,
                -1397614,
                -735401
            ],
            [
                -2257289,
                1588640,
                -1346803,
                1879560,
                -2053502,
                1446883,
                872785,
                -634093,
                -1757112,
                -473331,
                -2228898,
                -965151,
                -2159235,
                -1663807,
                -2092186,
                1347274,
                129561,
                -1070893,
                -1601093,
                -1888289
            ],
            [
                -291466,
                -1440784,
                839582,
                -2184811,
                -672115,
                1950759,
                -1757981,
                -183877,
                -1396590,
                2548309,
                -2183222,
                -1537007,
                2545150,
                2604908,
                88769,
                110870,
                -1155508,
                -2285618,
                -1337030,
                -2385939
            ],
            [
                -2013790,
                -353046,
                -3015101,
                -85510,
                -139467,
                -83773,
                -3009936,
                1906161,
                -3036776,
                719032,
                -919594,
                2163310,
                -2204291,
                495249,
                3257544,
                2158145,
                3555920,
                898815,
                2572094,
                6377553
            ],
            [
                4458536,
                837290,
                5290272,
                5072977,
                -2956118,
                -1005787,
                -254186,
                -5075390,
                -1030443,
                -1555643,
                -1636954,
                2752038,
                -210721,
                2101991,
                -307340,
                1101634,
                786283,
                236215,
                1993217,
                2728434
            ],
            [
                744842,
                -2832307,
                -3065641,
                713683,
                -2329784,
                -2041020,
                614722,
                -2037388,
                1968745,
                -1050803,
                -442158,
                -985150,
                3451846,
                3602834,
                -1508231,
                3635998,
                -1862290,
                970849,
                4742216,
                4452830
            ],
            [
                -1631101,
                -1345403,
                -2134639,
                1659180,
                -1937723,
                1405775,
                -497515,
                -2950277,
                -595543,
                -2385076,
                818526,
                -1801232,
                -3993074,
                -3086460,
                -2801565,
                -1125000,
                -153964,
                -1870622,
                -2658017,
                -2098909
            ],
            [
                1861085,
                -3404915,
                -2245135,
                658986,
                2239109,
                2339094,
                1840092,
                -2760474,
                -2199459,
                -1806031,
                -2709418,
                -2982029,
                -3305276,
                -810624,
                584373,
                1518829,
                3443263,
                2192242,
                3128889,
                6194471
            ],
            [
                1668902,
                -384734,
                1261609,
                2510328,
                -2571577,
                -952947,
                649937,
                -4717708,
                -2772053,
                3841919,
                2328212,
                2755806,
                3777715,
                1891091,
                -1639431,
                -788681,
                546015,
                -448866,
                -3669152,
                268252
            ],
            [
                520504,
                138457,
                3775248,
                1902430,
                4459222,
                872018,
                -1937776,
                1573423,
                -2899,
                196297,
                380309,
                620073,
                2115449,
                1470750,
                -2399594,
                -390447,
                -764784,
                -1566484,
                -950255,
                -423949
            ]
        ]
    }
}
